<?xml version="1.0"?>
<opencv_storage>
<cascade>
  <stageType>BOOST</stageType>
  <featureType>HAAR</featureType>
  <height>31</height>
  <width>22</width>
  <stageParams>
    <boostType>GAB</boostType>
    <minHitRate>9.9900001287460327e-01</minHitRate>
    <maxFalseAlarm>5.0000000000000000e-01</maxFalseAlarm>
    <weightTrimRate>9.4999999999999996e-01</weightTrimRate>
    <maxDepth>1</maxDepth>
    <maxWeakCount>100</maxWeakCount></stageParams>
  <featureParams>
    <maxCatCount>0</maxCatCount>
    <featSize>1</featSize>
    <mode>ALL</mode></featureParams>
  <stageNum>10</stageNum>
  <stages>
    <!-- stage 0 -->
    <_>
      <maxWeakCount>3</maxWeakCount>
      <stageThreshold>-1.1558859348297119e+00</stageThreshold>
      <weakClassifiers>
        <_>
          <internalNodes>
            0 -1 30 -2.5897279381752014e-02</internalNodes>
          <leafValues>
            9.9186992645263672e-01 -9.8756217956542969e-01</leafValues></_>
        <_>
          <internalNodes>
            0 -1 23 9.4010092318058014e-02</internalNodes>
          <leafValues>
            -9.6677237749099731e-01 8.2240605354309082e-01</leafValues></_>
        <_>
          <internalNodes>
            0 -1 9 7.7592479065060616e-03</internalNodes>
          <leafValues>
            -9.8464083671569824e-01 7.9844862222671509e-01</leafValues></_></weakClassifiers></_>
    <!-- stage 1 -->
    <_>
      <maxWeakCount>3</maxWeakCount>
      <stageThreshold>-1.0834445953369141e+00</stageThreshold>
      <weakClassifiers>
        <_>
          <internalNodes>
            0 -1 11 1.9605576992034912e-02</internalNodes>
          <leafValues>
            -9.8258703947067261e-01 9.7560977935791016e-01</leafValues></_>
        <_>
          <internalNodes>
            0 -1 7 2.3062583059072495e-02</internalNodes>
          <leafValues>
            -8.9458614587783813e-01 8.9328271150588989e-01</leafValues></_>
        <_>
          <internalNodes>
            0 -1 19 6.6376343369483948e-02</internalNodes>
          <leafValues>
            -9.2766678333282471e-01 7.9372864961624146e-01</leafValues></_></weakClassifiers></_>
    <!-- stage 2 -->
    <_>
      <maxWeakCount>3</maxWeakCount>
      <stageThreshold>-1.2572292089462280e+00</stageThreshold>
      <weakClassifiers>
        <_>
          <internalNodes>
            0 -1 29 -5.4251465946435928e-02</internalNodes>
          <leafValues>
            9.1338580846786499e-01 -9.8241204023361206e-01</leafValues></_>
        <_>
          <internalNodes>
            0 -1 15 7.7585369348526001e-02</internalNodes>
          <leafValues>
            -9.0900802612304688e-01 8.3692729473114014e-01</leafValues></_>
        <_>
          <internalNodes>
            0 -1 32 -8.2644093781709671e-03</internalNodes>
          <leafValues>
            6.3419091701507568e-01 -9.4788455963134766e-01</leafValues></_></weakClassifiers></_>
    <!-- stage 3 -->
    <_>
      <maxWeakCount>4</maxWeakCount>
      <stageThreshold>-2.1388964653015137e+00</stageThreshold>
      <weakClassifiers>
        <_>
          <internalNodes>
            0 -1 4 5.9841521084308624e-02</internalNodes>
          <leafValues>
            -9.7747182846069336e-01 9.2031872272491455e-01</leafValues></_>
        <_>
          <internalNodes>
            0 -1 18 3.2762992382049561e-01</internalNodes>
          <leafValues>
            -9.0892332792282104e-01 8.1771314144134521e-01</leafValues></_>
        <_>
          <internalNodes>
            0 -1 34 -2.0703162997961044e-02</internalNodes>
          <leafValues>
            8.4556907415390015e-01 -8.3832842111587524e-01</leafValues></_>
        <_>
          <internalNodes>
            0 -1 12 -5.4102174937725067e-02</internalNodes>
          <leafValues>
            5.8582717180252075e-01 -9.3866461515426636e-01</leafValues></_></weakClassifiers></_>
    <!-- stage 4 -->
    <_>
      <maxWeakCount>3</maxWeakCount>
      <stageThreshold>-1.2348024845123291e+00</stageThreshold>
      <weakClassifiers>
        <_>
          <internalNodes>
            0 -1 27 1.8121402710676193e-02</internalNodes>
          <leafValues>
            -9.5343136787414551e-01 9.7435897588729858e-01</leafValues></_>
        <_>
          <internalNodes>
            0 -1 33 -1.5661304350942373e-03</internalNodes>
          <leafValues>
            8.5512030124664307e-01 -9.1400367021560669e-01</leafValues></_>
        <_>
          <internalNodes>
            0 -1 21 2.3083677515387535e-03</internalNodes>
          <leafValues>
            -9.3408524990081787e-01 6.3263255357742310e-01</leafValues></_></weakClassifiers></_>
    <!-- stage 5 -->
    <_>
      <maxWeakCount>4</maxWeakCount>
      <stageThreshold>-1.6369130611419678e+00</stageThreshold>
      <weakClassifiers>
        <_>
          <internalNodes>
            0 -1 8 5.8525186032056808e-02</internalNodes>
          <leafValues>
            -9.4313967227935791e-01 8.8381743431091309e-01</leafValues></_>
        <_>
          <internalNodes>
            0 -1 16 -1.2746322154998779e-01</internalNodes>
          <leafValues>
            8.4386146068572998e-01 -9.1312831640243530e-01</leafValues></_>
        <_>
          <internalNodes>
            0 -1 1 3.6035783588886261e-02</internalNodes>
          <leafValues>
            -5.9193634986877441e-01 9.4063502550125122e-01</leafValues></_>
        <_>
          <internalNodes>
            0 -1 22 -5.9169130399823189e-03</internalNodes>
          <leafValues>
            8.1129133701324463e-01 -6.5656715631484985e-01</leafValues></_></weakClassifiers></_>
    <!-- stage 6 -->
    <_>
      <maxWeakCount>4</maxWeakCount>
      <stageThreshold>-2.0229420661926270e+00</stageThreshold>
      <weakClassifiers>
        <_>
          <internalNodes>
            0 -1 2 4.5756302773952484e-02</internalNodes>
          <leafValues>
            -8.8861387968063354e-01 6.9421488046646118e-01</leafValues></_>
        <_>
          <internalNodes>
            0 -1 28 2.1691450476646423e-01</internalNodes>
          <leafValues>
            -8.6567997932434082e-01 6.8851190805435181e-01</leafValues></_>
        <_>
          <internalNodes>
            0 -1 26 -8.9705260470509529e-03</internalNodes>
          <leafValues>
            7.6434850692749023e-01 -7.0495671033859253e-01</leafValues></_>
        <_>
          <internalNodes>
            0 -1 25 4.9749054014682770e-03</internalNodes>
          <leafValues>
            -9.8354011774063110e-01 4.3630838394165039e-01</leafValues></_></weakClassifiers></_>
    <!-- stage 7 -->
    <_>
      <maxWeakCount>4</maxWeakCount>
      <stageThreshold>-1.9477137327194214e+00</stageThreshold>
      <weakClassifiers>
        <_>
          <internalNodes>
            0 -1 0 2.1269447170197964e-03</internalNodes>
          <leafValues>
            -9.3014228343963623e-01 6.1010831594467163e-01</leafValues></_>
        <_>
          <internalNodes>
            0 -1 3 3.2082900404930115e-01</internalNodes>
          <leafValues>
            -9.1293048858642578e-01 6.5888190269470215e-01</leafValues></_>
        <_>
          <internalNodes>
            0 -1 31 1.2216205708682537e-02</internalNodes>
          <leafValues>
            -7.5603842735290527e-01 6.3412576913833618e-01</leafValues></_>
        <_>
          <internalNodes>
            0 -1 20 5.6377559900283813e-02</internalNodes>
          <leafValues>
            -7.0325130224227905e-01 6.5139746665954590e-01</leafValues></_></weakClassifiers></_>
    <!-- stage 8 -->
    <_>
      <maxWeakCount>5</maxWeakCount>
      <stageThreshold>-2.6371002197265625e+00</stageThreshold>
      <weakClassifiers>
        <_>
          <internalNodes>
            0 -1 14 -9.1143008321523666e-03</internalNodes>
          <leafValues>
            4.8076921701431274e-01 -9.4850951433181763e-01</leafValues></_>
        <_>
          <internalNodes>
            0 -1 35 -1.9603846594691277e-03</internalNodes>
          <leafValues>
            5.7890856266021729e-01 -8.9360880851745605e-01</leafValues></_>
        <_>
          <internalNodes>
            0 -1 17 2.6807278394699097e-01</internalNodes>
          <leafValues>
            -7.3301118612289429e-01 6.2939929962158203e-01</leafValues></_>
        <_>
          <internalNodes>
            0 -1 6 -9.7308587282896042e-04</internalNodes>
          <leafValues>
            7.4977868795394897e-01 -5.6263965368270874e-01</leafValues></_>
        <_>
          <internalNodes>
            0 -1 10 3.4038955345749855e-03</internalNodes>
          <leafValues>
            -9.2262226343154907e-01 5.0066894292831421e-01</leafValues></_></weakClassifiers></_>
    <!-- stage 9 -->
    <_>
      <maxWeakCount>5</maxWeakCount>
      <stageThreshold>-1.5018424987792969e+00</stageThreshold>
      <weakClassifiers>
        <_>
          <internalNodes>
            0 -1 36 1.7022764077410102e-03</internalNodes>
          <leafValues>
            -9.1590011119842529e-01 5.0865054130554199e-01</leafValues></_>
        <_>
          <internalNodes>
            0 -1 13 3.1128826737403870e-01</internalNodes>
          <leafValues>
            -8.5266393423080444e-01 6.8860614299774170e-01</leafValues></_>
        <_>
          <internalNodes>
            0 -1 24 1.1327339336276054e-02</internalNodes>
          <leafValues>
            -6.9892096519470215e-01 7.3076242208480835e-01</leafValues></_>
        <_>
          <internalNodes>
            0 -1 5 -1.7730556428432465e-03</internalNodes>
          <leafValues>
            4.3910494446754456e-01 -9.2282664775848389e-01</leafValues></_>
        <_>
          <internalNodes>
            0 -1 37 -1.9599210470914841e-02</internalNodes>
          <leafValues>
            5.2653765678405762e-01 -7.2666156291961670e-01</leafValues></_></weakClassifiers></_></stages>
  <features>
    <_>
      <rects>
        <_>
          0 0 2 2 -1.</_>
        <_>
          0 0 1 1 2.</_>
        <_>
          1 1 1 1 2.</_></rects>
      <tilted>0</tilted></_>
    <_>
      <rects>
        <_>
          0 1 2 24 -1.</_>
        <_>
          1 1 1 24 2.</_></rects>
      <tilted>0</tilted></_>
    <_>
      <rects>
        <_>
          0 2 2 24 -1.</_>
        <_>
          1 2 1 24 2.</_></rects>
      <tilted>0</tilted></_>
    <_>
      <rects>
        <_>
          0 12 15 18 -1.</_>
        <_>
          5 18 5 6 9.</_></rects>
      <tilted>0</tilted></_>
    <_>
      <rects>
        <_>
          0 17 4 13 -1.</_>
        <_>
          2 17 2 13 2.</_></rects>
      <tilted>0</tilted></_>
    <_>
      <rects>
        <_>
          0 19 4 12 -1.</_>
        <_>
          0 19 2 6 2.</_>
        <_>
          2 25 2 6 2.</_></rects>
      <tilted>0</tilted></_>
    <_>
      <rects>
        <_>
          0 30 2 1 -1.</_>
        <_>
          1 30 1 1 2.</_></rects>
      <tilted>0</tilted></_>
    <_>
      <rects>
        <_>
          1 0 16 4 -1.</_>
        <_>
          1 1 16 2 2.</_></rects>
      <tilted>0</tilted></_>
    <_>
      <rects>
        <_>
          1 0 19 4 -1.</_>
        <_>
          1 1 19 2 2.</_></rects>
      <tilted>0</tilted></_>
    <_>
      <rects>
        <_>
          1 17 2 12 -1.</_>
        <_>
          2 17 1 12 2.</_></rects>
      <tilted>0</tilted></_>
    <_>
      <rects>
        <_>
          1 25 4 4 -1.</_>
        <_>
          2 25 2 4 2.</_></rects>
      <tilted>0</tilted></_>
    <_>
      <rects>
        <_>
          2 0 13 2 -1.</_>
        <_>
          2 1 13 1 2.</_></rects>
      <tilted>0</tilted></_>
    <_>
      <rects>
        <_>
          2 9 18 2 -1.</_>
        <_>
          2 9 9 2 2.</_></rects>
      <tilted>1</tilted></_>
    <_>
      <rects>
        <_>
          2 11 18 20 -1.</_>
        <_>
          2 16 18 10 2.</_></rects>
      <tilted>0</tilted></_>
    <_>
      <rects>
        <_>
          2 19 2 2 -1.</_>
        <_>
          2 19 1 2 2.</_></rects>
      <tilted>1</tilted></_>
    <_>
      <rects>
        <_>
          2 23 17 8 -1.</_>
        <_>
          2 25 17 4 2.</_></rects>
      <tilted>0</tilted></_>
    <_>
      <rects>
        <_>
          2 25 16 6 -1.</_>
        <_>
          2 28 16 3 2.</_></rects>
      <tilted>0</tilted></_>
    <_>
      <rects>
        <_>
          3 8 12 20 -1.</_>
        <_>
          3 18 12 10 2.</_></rects>
      <tilted>0</tilted></_>
    <_>
      <rects>
        <_>
          3 8 17 20 -1.</_>
        <_>
          3 18 17 10 2.</_></rects>
      <tilted>0</tilted></_>
    <_>
      <rects>
        <_>
          3 15 15 6 -1.</_>
        <_>
          3 18 15 3 2.</_></rects>
      <tilted>0</tilted></_>
    <_>
      <rects>
        <_>
          3 16 17 4 -1.</_>
        <_>
          3 18 17 2 2.</_></rects>
      <tilted>0</tilted></_>
    <_>
      <rects>
        <_>
          3 24 1 2 -1.</_>
        <_>
          3 24 1 1 2.</_></rects>
      <tilted>1</tilted></_>
    <_>
      <rects>
        <_>
          3 27 5 3 -1.</_>
        <_>
          3 28 5 1 3.</_></rects>
      <tilted>0</tilted></_>
    <_>
      <rects>
        <_>
          11 15 8 16 -1.</_>
        <_>
          11 19 8 8 2.</_></rects>
      <tilted>0</tilted></_>
    <_>
      <rects>
        <_>
          13 1 5 3 -1.</_>
        <_>
          13 2 5 1 3.</_></rects>
      <tilted>0</tilted></_>
    <_>
      <rects>
        <_>
          13 18 8 5 -1.</_>
        <_>
          15 18 4 5 2.</_></rects>
      <tilted>0</tilted></_>
    <_>
      <rects>
        <_>
          14 2 6 2 -1.</_>
        <_>
          14 3 6 1 2.</_></rects>
      <tilted>0</tilted></_>
    <_>
      <rects>
        <_>
          15 0 6 4 -1.</_>
        <_>
          15 1 6 2 2.</_></rects>
      <tilted>0</tilted></_>
    <_>
      <rects>
        <_>
          16 13 6 18 -1.</_>
        <_>
          18 19 2 6 9.</_></rects>
      <tilted>0</tilted></_>
    <_>
      <rects>
        <_>
          18 19 4 10 -1.</_>
        <_>
          20 19 2 10 2.</_></rects>
      <tilted>0</tilted></_>
    <_>
      <rects>
        <_>
          18 23 4 5 -1.</_>
        <_>
          20 23 2 5 2.</_></rects>
      <tilted>0</tilted></_>
    <_>
      <rects>
        <_>
          18 25 4 6 -1.</_>
        <_>
          18 25 2 3 2.</_>
        <_>
          20 28 2 3 2.</_></rects>
      <tilted>0</tilted></_>
    <_>
      <rects>
        <_>
          19 12 2 14 -1.</_>
        <_>
          19 12 1 7 2.</_>
        <_>
          20 19 1 7 2.</_></rects>
      <tilted>0</tilted></_>
    <_>
      <rects>
        <_>
          20 0 2 2 -1.</_>
        <_>
          20 0 1 1 2.</_>
        <_>
          21 1 1 1 2.</_></rects>
      <tilted>0</tilted></_>
    <_>
      <rects>
        <_>
          20 1 2 24 -1.</_>
        <_>
          21 1 1 24 2.</_></rects>
      <tilted>0</tilted></_>
    <_>
      <rects>
        <_>
          20 2 2 1 -1.</_>
        <_>
          21 2 1 1 2.</_></rects>
      <tilted>0</tilted></_>
    <_>
      <rects>
        <_>
          20 29 2 2 -1.</_>
        <_>
          20 29 1 1 2.</_>
        <_>
          21 30 1 1 2.</_></rects>
      <tilted>0</tilted></_>
    <_>
      <rects>
        <_>
          21 13 1 10 -1.</_>
        <_>
          21 13 1 5 2.</_></rects>
      <tilted>1</tilted></_></features></cascade>
</opencv_storage>
