<?xml version="1.0"?>
<opencv_storage>
<cascade>
  <stageType>BOOST</stageType>
  <featureType>HAAR</featureType>
  <height>31</height>
  <width>22</width>
  <stageParams>
    <boostType>GAB</boostType>
    <minHitRate>9.9900001287460327e-01</minHitRate>
    <maxFalseAlarm>5.0000000000000000e-01</maxFalseAlarm>
    <weightTrimRate>9.4999999999999996e-01</weightTrimRate>
    <maxDepth>1</maxDepth>
    <maxWeakCount>100</maxWeakCount></stageParams>
  <featureParams>
    <maxCatCount>0</maxCatCount>
    <featSize>1</featSize>
    <mode>ALL</mode></featureParams>
  <stageNum>14</stageNum>
  <stages>
    <!-- stage 0 -->
    <_>
      <maxWeakCount>4</maxWeakCount>
      <stageThreshold>-2.0022654533386230e+00</stageThreshold>
      <weakClassifiers>
        <_>
          <internalNodes>
            0 -1 25 2.0771133899688721e-01</internalNodes>
          <leafValues>
            -9.6959066390991211e-01 9.7310924530029297e-01</leafValues></_>
        <_>
          <internalNodes>
            0 -1 14 2.7042083442211151e-02</internalNodes>
          <leafValues>
            -8.8680726289749146e-01 9.9039453268051147e-01</leafValues></_>
        <_>
          <internalNodes>
            0 -1 31 -2.3415880277752876e-02</internalNodes>
          <leafValues>
            8.5800731182098389e-01 -8.8748431205749512e-01</leafValues></_>
        <_>
          <internalNodes>
            0 -1 54 -5.8072721585631371e-03</internalNodes>
          <leafValues>
            7.4161678552627563e-01 -8.5852646827697754e-01</leafValues></_></weakClassifiers></_>
    <!-- stage 1 -->
    <_>
      <maxWeakCount>4</maxWeakCount>
      <stageThreshold>-1.9342951774597168e+00</stageThreshold>
      <weakClassifiers>
        <_>
          <internalNodes>
            0 -1 8 4.5915685594081879e-02</internalNodes>
          <leafValues>
            -9.5149034261703491e-01 9.4869637489318848e-01</leafValues></_>
        <_>
          <internalNodes>
            0 -1 33 5.2167527377605438e-02</internalNodes>
          <leafValues>
            -8.7662249803543091e-01 8.6401653289794922e-01</leafValues></_>
        <_>
          <internalNodes>
            0 -1 57 -2.6028743013739586e-02</internalNodes>
          <leafValues>
            9.1125088930130005e-01 -7.5613641738891602e-01</leafValues></_>
        <_>
          <internalNodes>
            0 -1 10 -4.3875048868358135e-03</internalNodes>
          <leafValues>
            6.4995414018630981e-01 -8.2035255432128906e-01</leafValues></_></weakClassifiers></_>
    <!-- stage 2 -->
    <_>
      <maxWeakCount>4</maxWeakCount>
      <stageThreshold>-1.9642732143402100e+00</stageThreshold>
      <weakClassifiers>
        <_>
          <internalNodes>
            0 -1 21 2.6532171294093132e-02</internalNodes>
          <leafValues>
            -9.4963395595550537e-01 9.4046121835708618e-01</leafValues></_>
        <_>
          <internalNodes>
            0 -1 8 4.8107624053955078e-02</internalNodes>
          <leafValues>
            -7.8477752208709717e-01 9.0246409177780151e-01</leafValues></_>
        <_>
          <internalNodes>
            0 -1 35 3.6357473582029343e-02</internalNodes>
          <leafValues>
            -7.6457190513610840e-01 7.8098541498184204e-01</leafValues></_>
        <_>
          <internalNodes>
            0 -1 49 2.5229824241250753e-03</internalNodes>
          <leafValues>
            -9.1576808691024780e-01 5.3471016883850098e-01</leafValues></_></weakClassifiers></_>
    <!-- stage 3 -->
    <_>
      <maxWeakCount>4</maxWeakCount>
      <stageThreshold>-1.8275430202484131e+00</stageThreshold>
      <weakClassifiers>
        <_>
          <internalNodes>
            0 -1 30 -7.9253867268562317e-02</internalNodes>
          <leafValues>
            8.6042761802673340e-01 -9.4339054822921753e-01</leafValues></_>
        <_>
          <internalNodes>
            0 -1 53 -4.7635868191719055e-02</internalNodes>
          <leafValues>
            8.3155137300491333e-01 -7.9637974500656128e-01</leafValues></_>
        <_>
          <internalNodes>
            0 -1 32 2.6156812906265259e-01</internalNodes>
          <leafValues>
            -7.4964779615402222e-01 7.7565664052963257e-01</leafValues></_>
        <_>
          <internalNodes>
            0 -1 17 2.4269160348922014e-03</internalNodes>
          <leafValues>
            -8.3464592695236206e-01 6.6187506914138794e-01</leafValues></_></weakClassifiers></_>
    <!-- stage 4 -->
    <_>
      <maxWeakCount>4</maxWeakCount>
      <stageThreshold>-1.9570155143737793e+00</stageThreshold>
      <weakClassifiers>
        <_>
          <internalNodes>
            0 -1 42 1.9109636545181274e-02</internalNodes>
          <leafValues>
            -9.4789814949035645e-01 9.0916597843170166e-01</leafValues></_>
        <_>
          <internalNodes>
            0 -1 4 2.0224912092089653e-02</internalNodes>
          <leafValues>
            -8.0113768577575684e-01 8.2533884048461914e-01</leafValues></_>
        <_>
          <internalNodes>
            0 -1 51 -1.1527236551046371e-02</internalNodes>
          <leafValues>
            6.5801423788070679e-01 -8.2447189092636108e-01</leafValues></_>
        <_>
          <internalNodes>
            0 -1 38 -1.3374283909797668e-02</internalNodes>
          <leafValues>
            6.1649221181869507e-01 -8.1379818916320801e-01</leafValues></_></weakClassifiers></_>
    <!-- stage 5 -->
    <_>
      <maxWeakCount>4</maxWeakCount>
      <stageThreshold>-1.8736366033554077e+00</stageThreshold>
      <weakClassifiers>
        <_>
          <internalNodes>
            0 -1 15 5.1213338971138000e-02</internalNodes>
          <leafValues>
            -9.0026247501373291e-01 8.8021934032440186e-01</leafValues></_>
        <_>
          <internalNodes>
            0 -1 56 -1.7951449844986200e-03</internalNodes>
          <leafValues>
            8.1810593605041504e-01 -7.9704391956329346e-01</leafValues></_>
        <_>
          <internalNodes>
            0 -1 45 9.2698097229003906e-02</internalNodes>
          <leafValues>
            -8.3940249681472778e-01 6.4340770244598389e-01</leafValues></_>
        <_>
          <internalNodes>
            0 -1 16 3.2185190357267857e-03</internalNodes>
          <leafValues>
            -7.7872180938720703e-01 6.6307228803634644e-01</leafValues></_></weakClassifiers></_>
    <!-- stage 6 -->
    <_>
      <maxWeakCount>6</maxWeakCount>
      <stageThreshold>-1.9844714403152466e+00</stageThreshold>
      <weakClassifiers>
        <_>
          <internalNodes>
            0 -1 13 1.6532545909285545e-02</internalNodes>
          <leafValues>
            -9.4941282272338867e-01 8.6849534511566162e-01</leafValues></_>
        <_>
          <internalNodes>
            0 -1 58 -1.5499481931328773e-02</internalNodes>
          <leafValues>
            7.8035110235214233e-01 -8.1791001558303833e-01</leafValues></_>
        <_>
          <internalNodes>
            0 -1 26 4.8446118831634521e-02</internalNodes>
          <leafValues>
            -7.2302997112274170e-01 6.9645452499389648e-01</leafValues></_>
        <_>
          <internalNodes>
            0 -1 36 3.0880976468324661e-02</internalNodes>
          <leafValues>
            -9.0544229745864868e-01 4.8757949471473694e-01</leafValues></_>
        <_>
          <internalNodes>
            0 -1 37 -1.1410960927605629e-02</internalNodes>
          <leafValues>
            8.1019151210784912e-01 -5.6588113307952881e-01</leafValues></_>
        <_>
          <internalNodes>
            0 -1 47 1.2964596971869469e-02</internalNodes>
          <leafValues>
            -8.3542537689208984e-01 5.8418309688568115e-01</leafValues></_></weakClassifiers></_>
    <!-- stage 7 -->
    <_>
      <maxWeakCount>5</maxWeakCount>
      <stageThreshold>-2.1048882007598877e+00</stageThreshold>
      <weakClassifiers>
        <_>
          <internalNodes>
            0 -1 44 2.9884614050388336e-02</internalNodes>
          <leafValues>
            -8.9610391855239868e-01 9.0149891376495361e-01</leafValues></_>
        <_>
          <internalNodes>
            0 -1 28 -1.4253813028335571e-01</internalNodes>
          <leafValues>
            7.8830587863922119e-01 -8.0672734975814819e-01</leafValues></_>
        <_>
          <internalNodes>
            0 -1 52 -7.0818639360368252e-03</internalNodes>
          <leafValues>
            4.9802869558334351e-01 -8.4196722507476807e-01</leafValues></_>
        <_>
          <internalNodes>
            0 -1 6 3.6156121641397476e-02</internalNodes>
          <leafValues>
            -4.7492083907127380e-01 9.0496987104415894e-01</leafValues></_>
        <_>
          <internalNodes>
            0 -1 9 -1.8063731491565704e-02</internalNodes>
          <leafValues>
            9.1483122110366821e-01 -4.6207693219184875e-01</leafValues></_></weakClassifiers></_>
    <!-- stage 8 -->
    <_>
      <maxWeakCount>5</maxWeakCount>
      <stageThreshold>-1.7961692810058594e+00</stageThreshold>
      <weakClassifiers>
        <_>
          <internalNodes>
            0 -1 0 1.7171169165521860e-03</internalNodes>
          <leafValues>
            -9.1378223896026611e-01 7.2616320848464966e-01</leafValues></_>
        <_>
          <internalNodes>
            0 -1 24 2.6283955574035645e-01</internalNodes>
          <leafValues>
            -8.9987891912460327e-01 7.6529091596603394e-01</leafValues></_>
        <_>
          <internalNodes>
            0 -1 48 5.7177331298589706e-02</internalNodes>
          <leafValues>
            -7.5151234865188599e-01 7.6351225376129150e-01</leafValues></_>
        <_>
          <internalNodes>
            0 -1 1 1.4220395823940635e-03</internalNodes>
          <leafValues>
            3.4386858344078064e-01 -9.9422419071197510e-01</leafValues></_>
        <_>
          <internalNodes>
            0 -1 3 -5.9059850173071027e-04</internalNodes>
          <leafValues>
            -9.0325373411178589e-01 4.2513567209243774e-01</leafValues></_></weakClassifiers></_>
    <!-- stage 9 -->
    <_>
      <maxWeakCount>5</maxWeakCount>
      <stageThreshold>-1.4702438116073608e+00</stageThreshold>
      <weakClassifiers>
        <_>
          <internalNodes>
            0 -1 56 -1.8592406995594501e-03</internalNodes>
          <leafValues>
            7.5691467523574829e-01 -9.1030001640319824e-01</leafValues></_>
        <_>
          <internalNodes>
            0 -1 40 -2.9920008033514023e-02</internalNodes>
          <leafValues>
            6.7646121978759766e-01 -8.2430505752563477e-01</leafValues></_>
        <_>
          <internalNodes>
            0 -1 22 4.5596045255661011e-01</internalNodes>
          <leafValues>
            -6.0806941986083984e-01 7.9679501056671143e-01</leafValues></_>
        <_>
          <internalNodes>
            0 -1 5 -7.8164250589907169e-04</internalNodes>
          <leafValues>
            -9.9826890230178833e-01 4.7107711434364319e-01</leafValues></_>
        <_>
          <internalNodes>
            0 -1 5 6.5750925568863750e-04</internalNodes>
          <leafValues>
            4.0135350823402405e-01 -9.5434999465942383e-01</leafValues></_></weakClassifiers></_>
    <!-- stage 10 -->
    <_>
      <maxWeakCount>5</maxWeakCount>
      <stageThreshold>-1.9751735925674438e+00</stageThreshold>
      <weakClassifiers>
        <_>
          <internalNodes>
            0 -1 2 2.6039732620120049e-03</internalNodes>
          <leafValues>
            -9.4461125135421753e-01 6.5322870016098022e-01</leafValues></_>
        <_>
          <internalNodes>
            0 -1 11 -2.3525655269622803e-03</internalNodes>
          <leafValues>
            5.9500795602798462e-01 -8.0362343788146973e-01</leafValues></_>
        <_>
          <internalNodes>
            0 -1 52 -7.5837895274162292e-03</internalNodes>
          <leafValues>
            5.0731384754180908e-01 -8.7837356328964233e-01</leafValues></_>
        <_>
          <internalNodes>
            0 -1 41 2.9113059863448143e-03</internalNodes>
          <leafValues>
            -8.7587535381317139e-01 3.3472239971160889e-01</leafValues></_>
        <_>
          <internalNodes>
            0 -1 18 2.4064755416475236e-04</internalNodes>
          <leafValues>
            3.1671220064163208e-01 -9.9940812587738037e-01</leafValues></_></weakClassifiers></_>
    <!-- stage 11 -->
    <_>
      <maxWeakCount>6</maxWeakCount>
      <stageThreshold>-2.1915872097015381e+00</stageThreshold>
      <weakClassifiers>
        <_>
          <internalNodes>
            0 -1 27 1.5636935830116272e-02</internalNodes>
          <leafValues>
            -9.2069894075393677e-01 6.1614727973937988e-01</leafValues></_>
        <_>
          <internalNodes>
            0 -1 46 -5.8541670441627502e-03</internalNodes>
          <leafValues>
            7.5287383794784546e-01 -7.0872253179550171e-01</leafValues></_>
        <_>
          <internalNodes>
            0 -1 43 1.9576761126518250e-01</internalNodes>
          <leafValues>
            -7.9338371753692627e-01 4.8747107386589050e-01</leafValues></_>
        <_>
          <internalNodes>
            0 -1 7 2.8974281158298254e-03</internalNodes>
          <leafValues>
            3.9821833372116089e-01 -9.8613268136978149e-01</leafValues></_>
        <_>
          <internalNodes>
            0 -1 60 1.3367417268455029e-03</internalNodes>
          <leafValues>
            -5.8590608835220337e-01 6.7919212579727173e-01</leafValues></_>
        <_>
          <internalNodes>
            0 -1 19 -1.6735091339796782e-03</internalNodes>
          <leafValues>
            -9.9369555711746216e-01 4.1890564560890198e-01</leafValues></_></weakClassifiers></_>
    <!-- stage 12 -->
    <_>
      <maxWeakCount>5</maxWeakCount>
      <stageThreshold>-1.7016327381134033e+00</stageThreshold>
      <weakClassifiers>
        <_>
          <internalNodes>
            0 -1 59 2.1459939889609814e-03</internalNodes>
          <leafValues>
            -9.5072466135025024e-01 5.3421050310134888e-01</leafValues></_>
        <_>
          <internalNodes>
            0 -1 23 4.0748280286788940e-01</internalNodes>
          <leafValues>
            -7.7330923080444336e-01 7.1210205554962158e-01</leafValues></_>
        <_>
          <internalNodes>
            0 -1 50 -2.6334966532886028e-03</internalNodes>
          <leafValues>
            5.7750004529953003e-01 -7.4579131603240967e-01</leafValues></_>
        <_>
          <internalNodes>
            0 -1 12 2.5061977794393897e-04</internalNodes>
          <leafValues>
            3.5151597857475281e-01 -9.9752360582351685e-01</leafValues></_>
        <_>
          <internalNodes>
            0 -1 34 -4.4554835185408592e-03</internalNodes>
          <leafValues>
            4.1667646169662476e-01 -8.0156862735748291e-01</leafValues></_></weakClassifiers></_>
    <!-- stage 13 -->
    <_>
      <maxWeakCount>5</maxWeakCount>
      <stageThreshold>-1.6513869762420654e+00</stageThreshold>
      <weakClassifiers>
        <_>
          <internalNodes>
            0 -1 29 -4.9025947228074074e-03</internalNodes>
          <leafValues>
            5.6023883819580078e-01 -8.7876737117767334e-01</leafValues></_>
        <_>
          <internalNodes>
            0 -1 20 1.8715108744800091e-03</internalNodes>
          <leafValues>
            -8.0938047170639038e-01 5.4199743270874023e-01</leafValues></_>
        <_>
          <internalNodes>
            0 -1 55 -8.6067467927932739e-03</internalNodes>
          <leafValues>
            5.6041240692138672e-01 -7.8426951169967651e-01</leafValues></_>
        <_>
          <internalNodes>
            0 -1 39 5.5569082498550415e-02</internalNodes>
          <leafValues>
            -8.0054932832717896e-01 4.6509322524070740e-01</leafValues></_>
        <_>
          <internalNodes>
            0 -1 61 -3.6206602817401290e-04</internalNodes>
          <leafValues>
            -9.9517011642456055e-01 3.5593721270561218e-01</leafValues></_></weakClassifiers></_></stages>
  <features>
    <_>
      <rects>
        <_>
          0 0 2 2 -1.</_>
        <_>
          0 0 1 1 2.</_>
        <_>
          1 1 1 1 2.</_></rects>
      <tilted>0</tilted></_>
    <_>
      <rects>
        <_>
          0 0 1 24 -1.</_>
        <_>
          0 12 1 12 2.</_></rects>
      <tilted>0</tilted></_>
    <_>
      <rects>
        <_>
          0 0 4 2 -1.</_>
        <_>
          0 0 2 1 2.</_>
        <_>
          2 1 2 1 2.</_></rects>
      <tilted>0</tilted></_>
    <_>
      <rects>
        <_>
          0 1 1 22 -1.</_>
        <_>
          0 12 1 11 2.</_></rects>
      <tilted>0</tilted></_>
    <_>
      <rects>
        <_>
          0 1 2 27 -1.</_>
        <_>
          1 1 1 27 2.</_></rects>
      <tilted>0</tilted></_>
    <_>
      <rects>
        <_>
          0 2 1 24 -1.</_>
        <_>
          0 10 1 8 3.</_></rects>
      <tilted>0</tilted></_>
    <_>
      <rects>
        <_>
          0 2 2 25 -1.</_>
        <_>
          1 2 1 25 2.</_></rects>
      <tilted>0</tilted></_>
    <_>
      <rects>
        <_>
          0 16 1 15 -1.</_>
        <_>
          0 21 1 5 3.</_></rects>
      <tilted>0</tilted></_>
    <_>
      <rects>
        <_>
          0 18 4 11 -1.</_>
        <_>
          2 18 2 11 2.</_></rects>
      <tilted>0</tilted></_>
    <_>
      <rects>
        <_>
          0 19 3 9 -1.</_>
        <_>
          1 19 1 9 3.</_></rects>
      <tilted>0</tilted></_>
    <_>
      <rects>
        <_>
          0 26 6 4 -1.</_>
        <_>
          0 26 3 2 2.</_>
        <_>
          3 28 3 2 2.</_></rects>
      <tilted>0</tilted></_>
    <_>
      <rects>
        <_>
          0 27 2 4 -1.</_>
        <_>
          0 27 1 2 2.</_>
        <_>
          1 29 1 2 2.</_></rects>
      <tilted>0</tilted></_>
    <_>
      <rects>
        <_>
          0 30 22 1 -1.</_>
        <_>
          11 30 11 1 2.</_></rects>
      <tilted>0</tilted></_>
    <_>
      <rects>
        <_>
          1 0 11 2 -1.</_>
        <_>
          1 1 11 1 2.</_></rects>
      <tilted>0</tilted></_>
    <_>
      <rects>
        <_>
          1 0 19 2 -1.</_>
        <_>
          1 1 19 1 2.</_></rects>
      <tilted>0</tilted></_>
    <_>
      <rects>
        <_>
          1 0 19 4 -1.</_>
        <_>
          1 1 19 2 2.</_></rects>
      <tilted>0</tilted></_>
    <_>
      <rects>
        <_>
          1 19 2 4 -1.</_>
        <_>
          2 19 1 4 2.</_></rects>
      <tilted>0</tilted></_>
    <_>
      <rects>
        <_>
          1 25 2 4 -1.</_>
        <_>
          2 25 1 4 2.</_></rects>
      <tilted>0</tilted></_>
    <_>
      <rects>
        <_>
          1 30 18 1 -1.</_>
        <_>
          10 30 9 1 2.</_></rects>
      <tilted>0</tilted></_>
    <_>
      <rects>
        <_>
          1 30 20 1 -1.</_>
        <_>
          11 30 10 1 2.</_></rects>
      <tilted>0</tilted></_>
    <_>
      <rects>
        <_>
          2 0 1 2 -1.</_>
        <_>
          2 1 1 1 2.</_></rects>
      <tilted>0</tilted></_>
    <_>
      <rects>
        <_>
          2 0 17 2 -1.</_>
        <_>
          2 1 17 1 2.</_></rects>
      <tilted>0</tilted></_>
    <_>
      <rects>
        <_>
          2 6 18 22 -1.</_>
        <_>
          2 17 18 11 2.</_></rects>
      <tilted>0</tilted></_>
    <_>
      <rects>
        <_>
          2 8 18 20 -1.</_>
        <_>
          2 18 18 10 2.</_></rects>
      <tilted>0</tilted></_>
    <_>
      <rects>
        <_>
          2 10 18 18 -1.</_>
        <_>
          2 19 18 9 2.</_></rects>
      <tilted>0</tilted></_>
    <_>
      <rects>
        <_>
          2 15 18 16 -1.</_>
        <_>
          2 19 18 8 2.</_></rects>
      <tilted>0</tilted></_>
    <_>
      <rects>
        <_>
          2 16 17 4 -1.</_>
        <_>
          2 18 17 2 2.</_></rects>
      <tilted>0</tilted></_>
    <_>
      <rects>
        <_>
          2 24 5 2 -1.</_>
        <_>
          2 24 5 1 2.</_></rects>
      <tilted>1</tilted></_>
    <_>
      <rects>
        <_>
          2 25 18 6 -1.</_>
        <_>
          2 28 18 3 2.</_></rects>
      <tilted>0</tilted></_>
    <_>
      <rects>
        <_>
          2 27 1 4 -1.</_>
        <_>
          2 29 1 2 2.</_></rects>
      <tilted>0</tilted></_>
    <_>
      <rects>
        <_>
          2 27 18 4 -1.</_>
        <_>
          2 29 18 2 2.</_></rects>
      <tilted>0</tilted></_>
    <_>
      <rects>
        <_>
          3 26 13 4 -1.</_>
        <_>
          3 28 13 2 2.</_></rects>
      <tilted>0</tilted></_>
    <_>
      <rects>
        <_>
          4 9 16 18 -1.</_>
        <_>
          4 18 16 9 2.</_></rects>
      <tilted>0</tilted></_>
    <_>
      <rects>
        <_>
          4 15 15 6 -1.</_>
        <_>
          4 18 15 3 2.</_></rects>
      <tilted>0</tilted></_>
    <_>
      <rects>
        <_>
          4 16 2 3 -1.</_>
        <_>
          4 16 1 3 2.</_></rects>
      <tilted>1</tilted></_>
    <_>
      <rects>
        <_>
          4 16 15 4 -1.</_>
        <_>
          4 18 15 2 2.</_></rects>
      <tilted>0</tilted></_>
    <_>
      <rects>
        <_>
          4 22 15 8 -1.</_>
        <_>
          4 24 15 4 2.</_></rects>
      <tilted>0</tilted></_>
    <_>
      <rects>
        <_>
          5 2 13 2 -1.</_>
        <_>
          5 3 13 1 2.</_></rects>
      <tilted>0</tilted></_>
    <_>
      <rects>
        <_>
          5 26 5 4 -1.</_>
        <_>
          5 28 5 2 2.</_></rects>
      <tilted>0</tilted></_>
    <_>
      <rects>
        <_>
          6 14 10 10 -1.</_>
        <_>
          6 19 10 5 2.</_></rects>
      <tilted>0</tilted></_>
    <_>
      <rects>
        <_>
          6 15 4 6 -1.</_>
        <_>
          6 15 2 6 2.</_></rects>
      <tilted>1</tilted></_>
    <_>
      <rects>
        <_>
          7 26 2 2 -1.</_>
        <_>
          7 26 2 1 2.</_></rects>
      <tilted>1</tilted></_>
    <_>
      <rects>
        <_>
          8 0 12 2 -1.</_>
        <_>
          8 1 12 1 2.</_></rects>
      <tilted>0</tilted></_>
    <_>
      <rects>
        <_>
          9 12 12 18 -1.</_>
        <_>
          13 18 4 6 9.</_></rects>
      <tilted>0</tilted></_>
    <_>
      <rects>
        <_>
          10 0 10 4 -1.</_>
        <_>
          10 1 10 2 2.</_></rects>
      <tilted>0</tilted></_>
    <_>
      <rects>
        <_>
          10 14 9 16 -1.</_>
        <_>
          10 18 9 8 2.</_></rects>
      <tilted>0</tilted></_>
    <_>
      <rects>
        <_>
          14 2 4 2 -1.</_>
        <_>
          14 3 4 1 2.</_></rects>
      <tilted>0</tilted></_>
    <_>
      <rects>
        <_>
          15 17 6 13 -1.</_>
        <_>
          17 17 2 13 3.</_></rects>
      <tilted>0</tilted></_>
    <_>
      <rects>
        <_>
          16 19 6 11 -1.</_>
        <_>
          18 19 2 11 3.</_></rects>
      <tilted>0</tilted></_>
    <_>
      <rects>
        <_>
          16 26 6 4 -1.</_>
        <_>
          16 26 3 2 2.</_>
        <_>
          19 28 3 2 2.</_></rects>
      <tilted>0</tilted></_>
    <_>
      <rects>
        <_>
          18 0 4 2 -1.</_>
        <_>
          18 0 2 1 2.</_>
        <_>
          20 1 2 1 2.</_></rects>
      <tilted>0</tilted></_>
    <_>
      <rects>
        <_>
          18 15 4 8 -1.</_>
        <_>
          18 15 2 4 2.</_>
        <_>
          20 19 2 4 2.</_></rects>
      <tilted>0</tilted></_>
    <_>
      <rects>
        <_>
          18 16 4 2 -1.</_>
        <_>
          18 16 4 1 2.</_></rects>
      <tilted>1</tilted></_>
    <_>
      <rects>
        <_>
          18 20 4 10 -1.</_>
        <_>
          20 20 2 10 2.</_></rects>
      <tilted>0</tilted></_>
    <_>
      <rects>
        <_>
          19 10 2 18 -1.</_>
        <_>
          19 10 1 9 2.</_>
        <_>
          20 19 1 9 2.</_></rects>
      <tilted>0</tilted></_>
    <_>
      <rects>
        <_>
          19 13 2 14 -1.</_>
        <_>
          19 13 1 7 2.</_>
        <_>
          20 20 1 7 2.</_></rects>
      <tilted>0</tilted></_>
    <_>
      <rects>
        <_>
          20 0 2 2 -1.</_>
        <_>
          20 0 1 1 2.</_>
        <_>
          21 1 1 1 2.</_></rects>
      <tilted>0</tilted></_>
    <_>
      <rects>
        <_>
          20 1 2 28 -1.</_>
        <_>
          21 1 1 28 2.</_></rects>
      <tilted>0</tilted></_>
    <_>
      <rects>
        <_>
          20 2 2 20 -1.</_>
        <_>
          21 2 1 20 2.</_></rects>
      <tilted>0</tilted></_>
    <_>
      <rects>
        <_>
          20 27 2 4 -1.</_>
        <_>
          20 27 1 2 2.</_>
        <_>
          21 29 1 2 2.</_></rects>
      <tilted>0</tilted></_>
    <_>
      <rects>
        <_>
          20 29 2 2 -1.</_>
        <_>
          20 29 1 1 2.</_>
        <_>
          21 30 1 1 2.</_></rects>
      <tilted>0</tilted></_>
    <_>
      <rects>
        <_>
          21 2 1 27 -1.</_>
        <_>
          21 11 1 9 3.</_></rects>
      <tilted>0</tilted></_></features></cascade>
</opencv_storage>
