<?xml version="1.0"?>
<opencv_storage>
<cascade>
  <stageType>BOOST</stageType>
  <featureType>HAAR</featureType>
  <height>12</height>
  <width>12</width>
  <stageParams>
    <boostType>GAB</boostType>
    <minHitRate>9.9900001287460327e-01</minHitRate>
    <maxFalseAlarm>5.0000000000000000e-01</maxFalseAlarm>
    <weightTrimRate>9.4999999999999996e-01</weightTrimRate>
    <maxDepth>1</maxDepth>
    <maxWeakCount>100</maxWeakCount></stageParams>
  <featureParams>
    <maxCatCount>0</maxCatCount>
    <featSize>1</featSize>
    <mode>ALL</mode></featureParams>
  <stageNum>8</stageNum>
  <stages>
    <!-- stage 0 -->
    <_>
      <maxWeakCount>2</maxWeakCount>
      <stageThreshold>-1.1023549363017082e-02</stageThreshold>
      <weakClassifiers>
        <_>
          <internalNodes>
            0 -1 15 -8.5270345211029053e-02</internalNodes>
          <leafValues>
            9.8364484310150146e-01 -9.9817186594009399e-01</leafValues></_>
        <_>
          <internalNodes>
            0 -1 20 -8.9415073394775391e-02</internalNodes>
          <leafValues>
            9.8851555585861206e-01 -9.9466842412948608e-01</leafValues></_></weakClassifiers></_>
    <!-- stage 1 -->
    <_>
      <maxWeakCount>2</maxWeakCount>
      <stageThreshold>-5.9219930320978165e-02</stageThreshold>
      <weakClassifiers>
        <_>
          <internalNodes>
            0 -1 19 -4.8193797469139099e-02</internalNodes>
          <leafValues>
            9.5828503370285034e-01 -9.9080038070678711e-01</leafValues></_>
        <_>
          <internalNodes>
            0 -1 23 -7.3365151882171631e-02</internalNodes>
          <leafValues>
            9.3158042430877686e-01 -9.9125677347183228e-01</leafValues></_></weakClassifiers></_>
    <!-- stage 2 -->
    <_>
      <maxWeakCount>2</maxWeakCount>
      <stageThreshold>-1.0704101622104645e-01</stageThreshold>
      <weakClassifiers>
        <_>
          <internalNodes>
            0 -1 3 3.8722783327102661e-02</internalNodes>
          <leafValues>
            -9.7567820549011230e-01 9.0011352300643921e-01</leafValues></_>
        <_>
          <internalNodes>
            0 -1 6 -7.0883728563785553e-02</internalNodes>
          <leafValues>
            8.6863720417022705e-01 -9.6999627351760864e-01</leafValues></_></weakClassifiers></_>
    <!-- stage 3 -->
    <_>
      <maxWeakCount>3</maxWeakCount>
      <stageThreshold>-1.1599904298782349e+00</stageThreshold>
      <weakClassifiers>
        <_>
          <internalNodes>
            0 -1 9 -1.2476503849029541e-01</internalNodes>
          <leafValues>
            8.8584476709365845e-01 -9.5530724525451660e-01</leafValues></_>
        <_>
          <internalNodes>
            0 -1 10 8.3624586462974548e-02</internalNodes>
          <leafValues>
            -9.2921864986419678e-01 8.1837511062622070e-01</leafValues></_>
        <_>
          <internalNodes>
            0 -1 22 5.6911326944828033e-02</internalNodes>
          <leafValues>
            -9.7838616371154785e-01 7.2453540563583374e-01</leafValues></_></weakClassifiers></_>
    <!-- stage 4 -->
    <_>
      <maxWeakCount>3</maxWeakCount>
      <stageThreshold>-1.1338828802108765e+00</stageThreshold>
      <weakClassifiers>
        <_>
          <internalNodes>
            0 -1 4 -8.4717962890863419e-03</internalNodes>
          <leafValues>
            8.7052023410797119e-01 -9.2442399263381958e-01</leafValues></_>
        <_>
          <internalNodes>
            0 -1 11 -8.8728725910186768e-02</internalNodes>
          <leafValues>
            7.4668216705322266e-01 -9.4132602214813232e-01</leafValues></_>
        <_>
          <internalNodes>
            0 -1 18 -1.6611360013484955e-01</internalNodes>
          <leafValues>
            7.3186713457107544e-01 -9.1233617067337036e-01</leafValues></_></weakClassifiers></_>
    <!-- stage 5 -->
    <_>
      <maxWeakCount>4</maxWeakCount>
      <stageThreshold>-2.0670914649963379e+00</stageThreshold>
      <weakClassifiers>
        <_>
          <internalNodes>
            0 -1 16 -2.0149867981672287e-02</internalNodes>
          <leafValues>
            6.9042772054672241e-01 -9.5867770910263062e-01</leafValues></_>
        <_>
          <internalNodes>
            0 -1 7 -8.8808864355087280e-02</internalNodes>
          <leafValues>
            7.3918509483337402e-01 -9.2965066432952881e-01</leafValues></_>
        <_>
          <internalNodes>
            0 -1 0 -1.9675817340612411e-02</internalNodes>
          <leafValues>
            7.3860830068588257e-01 -8.8046598434448242e-01</leafValues></_>
        <_>
          <internalNodes>
            0 -1 13 6.1099596321582794e-02</internalNodes>
          <leafValues>
            -8.9108395576477051e-01 7.0170295238494873e-01</leafValues></_></weakClassifiers></_>
    <!-- stage 6 -->
    <_>
      <maxWeakCount>4</maxWeakCount>
      <stageThreshold>-2.0455811023712158e+00</stageThreshold>
      <weakClassifiers>
        <_>
          <internalNodes>
            0 -1 8 1.6345735639333725e-02</internalNodes>
          <leafValues>
            -9.4461536407470703e-01 6.8820512294769287e-01</leafValues></_>
        <_>
          <internalNodes>
            0 -1 1 -2.0629484206438065e-02</internalNodes>
          <leafValues>
            7.3101115226745605e-01 -8.8206392526626587e-01</leafValues></_>
        <_>
          <internalNodes>
            0 -1 17 -1.9424191117286682e-01</internalNodes>
          <leafValues>
            6.5580648183822632e-01 -9.2051774263381958e-01</leafValues></_>
        <_>
          <internalNodes>
            0 -1 12 -1.6984649002552032e-01</internalNodes>
          <leafValues>
            7.0161586999893188e-01 -8.8816344738006592e-01</leafValues></_></weakClassifiers></_>
    <!-- stage 7 -->
    <_>
      <maxWeakCount>4</maxWeakCount>
      <stageThreshold>-6.3213688135147095e-01</stageThreshold>
      <weakClassifiers>
        <_>
          <internalNodes>
            0 -1 21 3.9654795080423355e-02</internalNodes>
          <leafValues>
            -9.6311473846435547e-01 7.0841890573501587e-01</leafValues></_>
        <_>
          <internalNodes>
            0 -1 14 -2.8206689283251762e-02</internalNodes>
          <leafValues>
            6.9161182641983032e-01 -9.4278293848037720e-01</leafValues></_>
        <_>
          <internalNodes>
            0 -1 2 -3.0740249156951904e-01</internalNodes>
          <leafValues>
            6.0677886009216309e-01 -9.7218114137649536e-01</leafValues></_>
        <_>
          <internalNodes>
            0 -1 5 9.8624713718891144e-03</internalNodes>
          <leafValues>
            -9.1754662990570068e-01 6.6698193550109863e-01</leafValues></_></weakClassifiers></_></stages>
  <features>
    <_>
      <rects>
        <_>
          1 7 2 4 -1.</_>
        <_>
          1 7 1 2 2.</_>
        <_>
          2 9 1 2 2.</_></rects>
      <tilted>0</tilted></_>
    <_>
      <rects>
        <_>
          2 2 2 2 -1.</_>
        <_>
          3 2 1 2 2.</_></rects>
      <tilted>0</tilted></_>
    <_>
      <rects>
        <_>
          2 2 9 8 -1.</_>
        <_>
          5 2 3 8 3.</_></rects>
      <tilted>0</tilted></_>
    <_>
      <rects>
        <_>
          2 6 3 2 -1.</_>
        <_>
          2 7 3 1 2.</_></rects>
      <tilted>0</tilted></_>
    <_>
      <rects>
        <_>
          2 9 2 2 -1.</_>
        <_>
          2 9 1 1 2.</_>
        <_>
          3 10 1 1 2.</_></rects>
      <tilted>0</tilted></_>
    <_>
      <rects>
        <_>
          3 0 1 3 -1.</_>
        <_>
          3 1 1 1 3.</_></rects>
      <tilted>0</tilted></_>
    <_>
      <rects>
        <_>
          3 1 6 2 -1.</_>
        <_>
          3 2 6 1 2.</_></rects>
      <tilted>0</tilted></_>
    <_>
      <rects>
        <_>
          3 2 4 2 -1.</_>
        <_>
          4 3 2 2 2.</_></rects>
      <tilted>1</tilted></_>
    <_>
      <rects>
        <_>
          3 7 3 1 -1.</_>
        <_>
          4 7 1 1 3.</_></rects>
      <tilted>0</tilted></_>
    <_>
      <rects>
        <_>
          3 7 6 2 -1.</_>
        <_>
          5 7 2 2 3.</_></rects>
      <tilted>0</tilted></_>
    <_>
      <rects>
        <_>
          4 1 2 3 -1.</_>
        <_>
          4 1 1 3 2.</_></rects>
      <tilted>1</tilted></_>
    <_>
      <rects>
        <_>
          4 1 4 8 -1.</_>
        <_>
          5 1 2 8 2.</_></rects>
      <tilted>0</tilted></_>
    <_>
      <rects>
        <_>
          4 2 4 4 -1.</_>
        <_>
          4 2 4 2 2.</_></rects>
      <tilted>1</tilted></_>
    <_>
      <rects>
        <_>
          4 6 7 3 -1.</_>
        <_>
          4 7 7 1 3.</_></rects>
      <tilted>0</tilted></_>
    <_>
      <rects>
        <_>
          4 8 6 2 -1.</_>
        <_>
          4 8 3 1 2.</_>
        <_>
          7 9 3 1 2.</_></rects>
      <tilted>0</tilted></_>
    <_>
      <rects>
        <_>
          5 1 3 4 -1.</_>
        <_>
          6 2 1 4 3.</_></rects>
      <tilted>1</tilted></_>
    <_>
      <rects>
        <_>
          8 2 2 4 -1.</_>
        <_>
          8 2 1 2 2.</_>
        <_>
          9 4 1 2 2.</_></rects>
      <tilted>0</tilted></_>
    <_>
      <rects>
        <_>
          8 2 3 6 -1.</_>
        <_>
          9 4 1 2 9.</_></rects>
      <tilted>0</tilted></_>
    <_>
      <rects>
        <_>
          8 3 4 3 -1.</_>
        <_>
          8 3 2 3 2.</_></rects>
      <tilted>1</tilted></_>
    <_>
      <rects>
        <_>
          8 5 2 2 -1.</_>
        <_>
          8 5 1 2 2.</_></rects>
      <tilted>1</tilted></_>
    <_>
      <rects>
        <_>
          9 1 3 3 -1.</_>
        <_>
          8 2 3 1 3.</_></rects>
      <tilted>1</tilted></_>
    <_>
      <rects>
        <_>
          9 3 2 4 -1.</_>
        <_>
          10 3 1 4 2.</_></rects>
      <tilted>0</tilted></_>
    <_>
      <rects>
        <_>
          10 2 2 2 -1.</_>
        <_>
          10 2 2 1 2.</_></rects>
      <tilted>1</tilted></_>
    <_>
      <rects>
        <_>
          10 4 2 4 -1.</_>
        <_>
          10 4 1 4 2.</_></rects>
      <tilted>1</tilted></_></features></cascade>
</opencv_storage>
