<?xml version="1.0"?>
<opencv_storage>
<cascade>
  <stageType>BOOST</stageType>
  <featureType>HAAR</featureType>
  <height>12</height>
  <width>12</width>
  <stageParams>
    <boostType>GAB</boostType>
    <minHitRate>9.9900001287460327e-01</minHitRate>
    <maxFalseAlarm>5.0000000000000000e-01</maxFalseAlarm>
    <weightTrimRate>9.4999999999999996e-01</weightTrimRate>
    <maxDepth>1</maxDepth>
    <maxWeakCount>100</maxWeakCount></stageParams>
  <featureParams>
    <maxCatCount>0</maxCatCount>
    <featSize>1</featSize>
    <mode>ALL</mode></featureParams>
  <stageNum>7</stageNum>
  <stages>
    <!-- stage 0 -->
    <_>
      <maxWeakCount>2</maxWeakCount>
      <stageThreshold>-1.6615914180874825e-02</stageThreshold>
      <weakClassifiers>
        <_>
          <internalNodes>
            0 -1 8 5.8358281850814819e-02</internalNodes>
          <leafValues>
            -9.9817848205566406e-01 9.9295777082443237e-01</leafValues></_>
        <_>
          <internalNodes>
            0 -1 10 6.4212620258331299e-02</internalNodes>
          <leafValues>
            -9.9819201231002808e-01 9.8156261444091797e-01</leafValues></_></weakClassifiers></_>
    <!-- stage 1 -->
    <_>
      <maxWeakCount>2</maxWeakCount>
      <stageThreshold>-7.1047835052013397e-02</stageThreshold>
      <weakClassifiers>
        <_>
          <internalNodes>
            0 -1 18 -3.1513869762420654e-02</internalNodes>
          <leafValues>
            9.4476407766342163e-01 -9.9074929952621460e-01</leafValues></_>
        <_>
          <internalNodes>
            0 -1 12 2.2265318781137466e-02</internalNodes>
          <leafValues>
            -9.7934842109680176e-01 9.1970145702362061e-01</leafValues></_></weakClassifiers></_>
    <!-- stage 2 -->
    <_>
      <maxWeakCount>3</maxWeakCount>
      <stageThreshold>-1.0167502164840698e+00</stageThreshold>
      <weakClassifiers>
        <_>
          <internalNodes>
            0 -1 5 1.7868307232856750e-01</internalNodes>
          <leafValues>
            -9.3357270956039429e-01 9.4497609138488770e-01</leafValues></_>
        <_>
          <internalNodes>
            0 -1 17 -8.1404723227024078e-02</internalNodes>
          <leafValues>
            8.4773635864257813e-01 -9.5919758081436157e-01</leafValues></_>
        <_>
          <internalNodes>
            0 -1 16 9.0175941586494446e-03</internalNodes>
          <leafValues>
            -8.5252898931503296e-01 8.7602007389068604e-01</leafValues></_></weakClassifiers></_>
    <!-- stage 3 -->
    <_>
      <maxWeakCount>3</maxWeakCount>
      <stageThreshold>-1.0052199363708496e+00</stageThreshold>
      <weakClassifiers>
        <_>
          <internalNodes>
            0 -1 6 -1.4738298952579498e-01</internalNodes>
          <leafValues>
            8.6605077981948853e-01 -9.2250925302505493e-01</leafValues></_>
        <_>
          <internalNodes>
            0 -1 3 -1.4001465402543545e-02</internalNodes>
          <leafValues>
            8.3268445730209351e-01 -8.9754140377044678e-01</leafValues></_>
        <_>
          <internalNodes>
            0 -1 14 -1.2021400965750217e-02</internalNodes>
          <leafValues>
            8.1483072042465210e-01 -8.8470894098281860e-01</leafValues></_></weakClassifiers></_>
    <!-- stage 4 -->
    <_>
      <maxWeakCount>3</maxWeakCount>
      <stageThreshold>-1.0554991960525513e+00</stageThreshold>
      <weakClassifiers>
        <_>
          <internalNodes>
            0 -1 13 -4.1911400854587555e-02</internalNodes>
          <leafValues>
            7.6645433902740479e-01 -9.6428573131561279e-01</leafValues></_>
        <_>
          <internalNodes>
            0 -1 7 2.6519107818603516e-01</internalNodes>
          <leafValues>
            -8.9372503757476807e-01 8.1468641757965088e-01</leafValues></_>
        <_>
          <internalNodes>
            0 -1 4 -1.9685707986354828e-02</internalNodes>
          <leafValues>
            8.5002899169921875e-01 -9.0589988231658936e-01</leafValues></_></weakClassifiers></_>
    <!-- stage 5 -->
    <_>
      <maxWeakCount>3</maxWeakCount>
      <stageThreshold>-1.2224537134170532e+00</stageThreshold>
      <weakClassifiers>
        <_>
          <internalNodes>
            0 -1 2 -3.4347940236330032e-02</internalNodes>
          <leafValues>
            7.5475686788558960e-01 -9.6015936136245728e-01</leafValues></_>
        <_>
          <internalNodes>
            0 -1 15 -1.8440742045640945e-02</internalNodes>
          <leafValues>
            6.9588071107864380e-01 -9.1535449028015137e-01</leafValues></_>
        <_>
          <internalNodes>
            0 -1 0 -2.0258107781410217e-01</internalNodes>
          <leafValues>
            7.0416188240051270e-01 -9.5817500352859497e-01</leafValues></_></weakClassifiers></_>
    <!-- stage 6 -->
    <_>
      <maxWeakCount>3</maxWeakCount>
      <stageThreshold>-1.0034066438674927e+00</stageThreshold>
      <weakClassifiers>
        <_>
          <internalNodes>
            0 -1 11 1.4359246939420700e-02</internalNodes>
          <leafValues>
            -8.7951809167861938e-01 8.0252581834793091e-01</leafValues></_>
        <_>
          <internalNodes>
            0 -1 9 -4.1871223598718643e-02</internalNodes>
          <leafValues>
            7.6362973451614380e-01 -9.0369254350662231e-01</leafValues></_>
        <_>
          <internalNodes>
            0 -1 1 -1.1688072234392166e-02</internalNodes>
          <leafValues>
            7.7980393171310425e-01 -8.8261824846267700e-01</leafValues></_></weakClassifiers></_></stages>
  <features>
    <_>
      <rects>
        <_>
          1 7 9 3 -1.</_>
        <_>
          4 8 3 1 9.</_></rects>
      <tilted>0</tilted></_>
    <_>
      <rects>
        <_>
          2 2 4 1 -1.</_>
        <_>
          3 2 2 1 2.</_></rects>
      <tilted>0</tilted></_>
    <_>
      <rects>
        <_>
          2 6 2 2 -1.</_>
        <_>
          3 6 1 2 2.</_></rects>
      <tilted>0</tilted></_>
    <_>
      <rects>
        <_>
          2 8 1 3 -1.</_>
        <_>
          2 9 1 1 3.</_></rects>
      <tilted>0</tilted></_>
    <_>
      <rects>
        <_>
          3 2 4 2 -1.</_>
        <_>
          3 2 2 1 2.</_>
        <_>
          5 3 2 1 2.</_></rects>
      <tilted>0</tilted></_>
    <_>
      <rects>
        <_>
          3 3 4 2 -1.</_>
        <_>
          3 3 2 2 2.</_></rects>
      <tilted>1</tilted></_>
    <_>
      <rects>
        <_>
          4 1 2 8 -1.</_>
        <_>
          4 5 2 4 2.</_></rects>
      <tilted>0</tilted></_>
    <_>
      <rects>
        <_>
          4 1 6 3 -1.</_>
        <_>
          4 1 3 3 2.</_></rects>
      <tilted>1</tilted></_>
    <_>
      <rects>
        <_>
          4 4 2 2 -1.</_>
        <_>
          4 4 1 2 2.</_></rects>
      <tilted>1</tilted></_>
    <_>
      <rects>
        <_>
          4 4 6 1 -1.</_>
        <_>
          7 4 3 1 2.</_></rects>
      <tilted>0</tilted></_>
    <_>
      <rects>
        <_>
          5 4 2 3 -1.</_>
        <_>
          5 4 1 3 2.</_></rects>
      <tilted>1</tilted></_>
    <_>
      <rects>
        <_>
          6 3 3 1 -1.</_>
        <_>
          7 3 1 1 3.</_></rects>
      <tilted>0</tilted></_>
    <_>
      <rects>
        <_>
          6 3 1 3 -1.</_>
        <_>
          6 4 1 1 3.</_></rects>
      <tilted>0</tilted></_>
    <_>
      <rects>
        <_>
          7 3 4 2 -1.</_>
        <_>
          8 3 2 2 2.</_></rects>
      <tilted>0</tilted></_>
    <_>
      <rects>
        <_>
          7 5 2 2 -1.</_>
        <_>
          7 5 1 1 2.</_>
        <_>
          8 6 1 1 2.</_></rects>
      <tilted>0</tilted></_>
    <_>
      <rects>
        <_>
          7 9 2 3 -1.</_>
        <_>
          7 10 2 1 3.</_></rects>
      <tilted>0</tilted></_>
    <_>
      <rects>
        <_>
          8 1 2 2 -1.</_>
        <_>
          8 1 1 1 2.</_>
        <_>
          9 2 1 1 2.</_></rects>
      <tilted>0</tilted></_>
    <_>
      <rects>
        <_>
          9 4 3 3 -1.</_>
        <_>
          10 5 1 3 3.</_></rects>
      <tilted>1</tilted></_>
    <_>
      <rects>
        <_>
          10 4 2 1 -1.</_>
        <_>
          10 4 1 1 2.</_></rects>
      <tilted>1</tilted></_></features></cascade>
</opencv_storage>
